{"weights_ItoH1": [[-0.7357998555906735, -0.17253304642327547, 0.08844307254033293, 0.305619170522982, 0.1725548768887042, 0.3249055101280136, -0.3233111595983345, 0.021035356496417693, 0.05201773263061611, -0.09770486256462696, 0.05887971927054863, 0.4884854077436509, -0.03751767631924474, -0.7349063030568393, -0.08235845709208853, 0.04473819148577299, -0.1439940273210465, -0.016381447783090516, -0.022951913513692808, 0.3252097186894196, -0.31993491774029176, -0.8102605562847818, -0.03851286029078356, 0.1252385933934723, -0.10808875511568652, -0.8559228193603692, 0.11343817157737482, -0.007131745537353967, -0.21341805355753166, 0.27918922244552263], [-0.0891761469795696, -0.15831040184413572, -0.1285892510182752, -0.11314625472388903, -0.1239143504803094, -0.41501816260387164, -0.012516590656343269, -0.48191609756650067, 0.13647604108752398, -0.10245137043076882, 0.14319079995463407, -0.5294929241965577, -0.03836232641467493, -0.14559521547297907, -0.21658279790221027, 0.388251596185595, 0.09059260289777443, 0.1345750015056002, 0.10636316631082407, 0.3643165537654631, -0.2809208513618919, -0.23686041007164815, 0.04523469240185493, 0.1489643719921878, 0.27539359497970145, -0.21243760603077047, -0.02107293030616567, 0.2529102296797703, -0.0985192944419723, 0.027791396457024123], [0.5521776866065061, 0.398232045929998, 0.29926000115331386, 0.15390320109001857, -0.31697771169384253, -0.06289074953081376, -0.04466614273960491, -0.05972105374827324, -0.05329865861328063, -0.3149261764876742, -0.14243848896301864, -0.10989215314519171, 0.44253843372602225, 0.07637494826769313, -0.11710450119646014, 0.17283166487328613, 0.12656872533123406, -0.04874220134826891, 0.15642961906697792, 0.0401938404178773, 0.6030836265095946, -0.09878685802761074, -0.18188061845868048, 0.6166777929043139, -0.350975002303517, -0.07533438183094128, 0.2534406686201653, 0.20050567950142978, -0.2503279323481274, -0.4554594952610404], [-0.3524943033369444, 0.15032752401815905, -0.3286210712680831, -0.2892447058535828, -0.4142211160759189, -0.07095661256470466, -0.24979356511541667, 0.04085799749332443, 0.25055933414946746, -0.03846106777971128, -0.09839920706372032, -0.2197206980716972, -0.09370919230081598, -0.08149473326861938, 0.3428555923933396, -0.002157668009844037, 0.05667766159988281, -0.24719649280996095, 0.08929459141091642, -0.4423134098628657, 0.03899746136946509, -0.0153884799015882, -0.14599209174094396, 0.1593349701875129, 0.011882925269241442, 0.3039136234249089, -0.16177166048174832, 0.45301268739194245, -0.16537720386197094, -0.07117859925462347], [0.2748051035367741, 0.26948822432012076, 0.07202956985489793, -0.21442358612904908, 0.10777707025130526, 0.10984229692758582, 0.005423775223131462, 0.27672071279626403, -0.3201023748950317, 0.09480672564125894, -0.28806108992696317, -0.28567993800545954, -0.0467756556030323, -0.34647829542748015, 0.19608074616249588, -0.07058579136133245, 0.12497756002450575, 0.12461681658622688, 0.15654616435389554, 0.09799331662119702, -0.290853115019444, -0.06110585244671949, 0.04518382536835422, -0.10425331634841109, -0.08026665008023982, -0.17651060253835468, 0.42364892645680524, 0.11631571822900695, -0.9128496407297773, -0.13404722994355525], [0.24578221308381332, 0.3383364779033396, 0.04803753749348747, -0.11119310278432712, 0.2533923497710449, 0.3680140882527987, 0.10086138971117922, 0.3504566812813229, 0.2804359403238419, -0.4751170138932044, -0.1872533204637935, 0.15863902252881062, -0.0908313864343666, 0.07784227416091517, 0.12425573203132839, -0.021934319969581072, -0.2770996074426268, 0.08678998617687518, -0.49763207140273535, 0.4106895635845337, 0.24977661794063735, -0.1208270958893382, 0.03884226385192923, -0.0756219644405633, 0.08859886470922493, 0.4088228109704947, -0.015128909371476932, 0.01278008199106124, 0.28481007263442026, -0.00021082796061496325], [-0.5950002082374528, 0.05609059345686586, 0.6156901028022299, 0.1534843132853816, 0.309169712514044, -0.2878216122187194, 0.19293597073706212, 0.07387201386738775, 0.25311014768406453, -0.13444281461481072, -0.24384468432693596, -0.1896392422428272, 0.06319916528636865, 0.09621079869069472, -0.20491836228342458, 0.18514545152044612, 0.07682859577241159, -0.40552522945615865, 0.059695410276055835, -0.20155279728666609, -0.08579423481498726, -0.3643485175233467, 0.07602172294396423, -0.11033296157398359, -0.28227719146102104, 0.0666401012913475, -0.10718577359204294, 0.2547341200663792, -0.3927187785490203, -0.6418888673233062], [-0.21710342194048338, -0.09577978240033197, -0.5132344807534543, -0.29501871630526305, 0.13558928914058055, 0.41711872368567543, 0.15529171916658677, -0.3150401328038398, -0.14902023603307823, -0.004708397258073356, 0.10207603896568565, -0.3360662063784534, 0.5880129388221899, -0.29725566320772173, -0.09974415287913997, 0.040046671615004074, 0.17683151950939982, 0.33140986189860544, -0.17423167939825288, 0.18435690652368378, 0.01338045358474665, 0.01933423854773568, 0.07765621489718792, -0.22548585342509522, -0.20844224903181352, 0.09792040267156384, -0.32005566085570103, 0.02891482455069181, 0.1222012006403418, 0.11650745928121861], [0.3371204301486304, 0.0003442007793107908, 0.30820467675036795, 0.06641318762471222, 0.03498817177876278, -0.17629290894238858, 0.012425818371292011, 0.026354168537124918, 0.2772936412193576, 0.11488252716525982, 0.2702598016174764, -0.08532077179602021, -0.08171554679374808, -0.5113152344368912, 0.21254258443817342, 0.1051046195757197, -0.2895840236188054, -0.289122443676495, 0.4653065915016354, -0.042201350825170014, 0.03675030757918518, -0.16780582384879583, -0.2700675927455656, -0.14973539198876096, -0.3094771681839978, 0.1804723947131338, 0.4769887002493786, -0.09792201949917118, 0.3886674758240819, 0.0827172684394175], [0.06437495188220177, -0.09815845851066188, -0.06996766039531618, 0.11592326437069317, 0.04904403961896943, -0.08655999041864472, -0.19548074056566792, 0.1065551813695177, 0.23062629333074464, -0.24197361108962767, 0.017193949954641952, -0.05782665366573549, 0.037206532292926, 0.4296936436820513, -0.09984618490016116, 0.12316892539741282, 0.18850389733747042, 0.14240157301083906, -0.40325075601437105, -0.10306458474190328, -0.2259600419700403, 0.26762023603797114, -0.13827823087538352, 0.5576935167338324, 0.2159140970241499, -0.04643978719781972, 0.12667217573746375, 0.34219626822426175, -0.18437702883460622, 0.31350412748699397], [0.004335949669335857, 0.4264169725787156, 0.24618098241414327, 0.35986516731606166, 0.2868297850947407, -0.14679675980931106, -0.3220654311690499, -0.09361322651804342, -0.09369095516328438, -0.015584015077004283, -0.024392723802019522, -0.05234652706552614, -0.007830796052568968, 0.04166912609616799, -0.12674416255561802, -0.15525861302977964, -0.18806223791117904, 0.21833454785201492, -0.11539246978357479, 0.05896769774362067, -0.14712533719401488, -0.09752123699991005, 0.03515743824105126, 0.19577786595221505, -0.401156335555479, -0.11819913009298226, -0.08151846400327589, -0.14631028101692706, -0.08848626857831739, -0.20528411764942978], [0.0015352684070701781, 0.14520857773821355, -0.10291126175166093, 0.23700642230359376, 0.055036846455933645, -0.12164682145389252, 0.00696373231981369, -0.11223926459105217, -0.12998560398134817, -0.05175739018594996, 0.14269180234701762, -0.1277294378216401, 0.22923966466537887, 0.02070390088844583, -0.10985143967878797, -0.001288486853877869, 0.12628797205568928, -0.03082851392266972, -0.09056723404644541, -0.1000082442246302, -0.24179935186548532, -0.4053468572024549, -0.22507240004609594, 0.11317503860508246, 0.4985822485759204, -0.18095743188948438, -0.14178531551606793, -0.02227523088050968, 0.06712333472951582, -0.14221478853832065], [-0.06269139043694334, -0.47790917348928375, 0.16593852031793171, -0.1340956025179105, -0.05577946765133449, -0.13062412094772313, 0.14387425901467654, -0.05697647048031514, -0.5151203604243643, 0.04652279335084102, -0.05115619590339007, -0.026922890889812683, -0.04831235123592517, 0.033978643998901034, -0.08238235180292275, -0.8341821179841283, -0.05817156506079531, 0.10962346012976258, -0.711799315460748, -0.22709002523217534, -0.45705988996381336, 0.14380813999749142, -0.18850156171375615, -0.05923262679501715, 0.10534961610553721, -0.3073909755415193, 0.2962219282678482, 0.011222750800576192, -0.2726720513258724, 0.2482425366722512], [-0.15384008227749685, 0.12518049355797858, 0.023380079604832817, -0.23366599398958304, 0.6556214243287669, 0.15359114140818572, -0.31339092196732266, -0.05211828323183102, -0.0869299963936868, -0.6147293151033514, -0.049248721137893345, -0.5997349669384001, -0.20607344472848918, -0.020490772420759876, 0.0995698223412945, 0.2716856218586264, 0.1076425374450587, 0.13292925734906585, 0.5339265260510587, 0.15800301805234596, 0.20254443218817647, 0.030980997472233478, 0.014985636049911806, -0.5155866689950892, -0.2278042378288755, 0.08623044495660158, 0.2881609062226636, 0.14807266568971894, -0.006955464320776727, -0.20083692185452112], [0.1143626593572292, 0.679750459075448, -0.09057198495554418, -0.1561374972294348, -0.14383809244793233, 0.21178485924426876, -0.023795658075110165, 0.19033102203698513, 0.21115645940858416, 0.017116522851523597, -0.38979306616107906, -0.06854035825488577, -0.1988480452015045, -0.12242033562264314, -0.282857257764, -0.12401527079088778, 0.27043224871475496, -0.21170290751938023, -0.10783976667959944, -0.0656249067158676, 0.0032636675404646644, -0.11986165634724075, 0.12666538174904435, 0.1946791031087566, 0.19262840465224607, 0.15755508400268348, -0.030721973037603302, -0.06427679267014132, -0.11021665834784732, 0.11710279683691115], [-0.09982128584499625, 0.00030496724442691714, -0.39688801336151786, 0.36479274920619353, -0.14071696759909375, -0.26842168756288537, 0.44331219257120713, -0.01831699962344527, -0.3858156847233026, 0.371629243977244, 0.359033567457952, -0.0550803687433156, -0.32067731116165016, 0.016089773482618648, -0.37037702010283624, -0.07644980928557188, 0.05403585816946229, -0.13054451628018537, -0.14640642276334656, -0.05214954824093032, 0.21146678749382405, -0.5145823183738903, 0.19748172366465197, 0.07386692310390419, -0.1934615160641151, 0.3159547451751484, 0.30196275222225805, 0.03053936284128624, 0.02375172999572636, -0.4244224898465158], [0.16979266314257674, -0.5393014286328398, 0.3620359296915713, 0.185689251897164, 0.19653512386106511, -0.3929546471984979, 0.013716649446390642, -0.008832669667099039, -0.4929726792222454, 0.28687933477676036, -0.37095362976651003, 0.18412359019827498, -0.13604656390878936, -0.4655885969610983, 0.19258727288949556, 0.06376443546093545, -0.2004242000451512, -0.12006406242546375, 0.10482647989587393, -0.26493767418373454, 0.3090036579893475, -0.412570413665482, -0.13107248005620653, 0.17386038307618457, 0.23480870293886796, 0.3357416306568228, 0.09813452312833361, -0.1906407595225552, -0.10711083514125226, -0.2913845919945171], [0.010508665486329368, -0.04377932835471248, 0.2632934883827682, -0.002176951398496, -0.028545747971668988, 0.19800797427453912, 0.1567047340954263, 0.38807144428360835, 0.3880909688096776, 0.20920351684963484, -0.2741075085736465, -0.3407658288922048, -0.4138279567254639, 0.18032183063534962, 0.0725669762970991, 0.11300996457873509, 0.08178047623381497, -0.5593696209946657, 0.23745681723623438, -0.0808420777967358, 0.5765746373610127, -0.3016095704167116, 0.09725716559948122, 0.02475290676404537, 0.2395475740637502, -0.23429859716512916, 0.25157754759519324, -0.34751024965334537, 0.01922041781202608, 0.12748393809772351], [0.16051174409783497, 0.0316065208450027, 0.2725943254158413, 0.7224744940657319, 0.5503359523945244, 0.005186928965922943, 0.16723974736873504, -0.03881234235741053, -0.17665362188363679, -0.18159083468015846, 0.4444690203291796, 0.19665498065273676, 0.018511513942522765, 0.564873390929889, -0.14170806475948522, 0.19220769596792045, 0.2539016962150214, 0.14340634567444352, -0.15653851528691798, -0.2748860155067107, -0.2250210592240797, 0.30470392070183905, 0.6542305291785172, -0.07821061053513177, 0.007367144371889592, -0.28244554977634634, 0.048343319807173754, 0.6043858142588374, 0.38337513720932814, 0.5000422393321036], [-0.0015365789527343207, 0.5138510117094762, -0.17761940800578452, -0.05509148439724569, 0.11325934779033649, 0.016063892999827654, 0.35495447473224606, -0.14383021265504534, -0.26725105281275396, 0.3652727380809786, -0.08938218693275517, 0.35079160110261653, 0.3382676487682805, 0.07981708956057962, 0.07939806285321029, 0.031938191316540264, 0.11478855201752222, -0.31757332806644917, -0.09194293110339177, 0.225434853183901, -0.19273737022632143, 0.13540775989430334, 0.5936233574048424, 0.39409351567182493, 0.42893769425449413, 0.22359735713672296, 0.1632826192667668, 0.22197891865748084, -0.047344004251141596, -0.2910888044929713]], "weights_H1toH2": [[0.057727025494745926, 0.1880090352282279, -0.20959011874229933, 0.5523860702787398, -0.060783564105068126, -0.23832632128560785, 0.32922599972668837, -0.21428563910584522, 0.3041946911605209, -0.3670337595838543, -0.012303144732626992, 0.15224908281788796, 0.6508255220415272, -0.2381403034324714, 0.09791167144560406, -0.49370936780707325, 0.12687617242845592, 0.26972714723701463, -0.2832690919266727, 0.2880409070597899], [0.6375214979985299, 0.6156927831342389, -0.23522090286827907, -0.7447836100959954, -0.11410472999763611, -0.07430279109323998, 0.14828476519372585, 0.09826622536149386, 0.3675445861428637, 0.3089581418494405, 0.01039357985702469, 0.30211784868209185, -0.30253573644726534, 0.12198846332835034, 0.23364679101285676, -0.5033134439672285, -0.04273794951110983, -0.20964898903819282, -0.5975670688538989, 0.18638143625436177], [0.29050552273886054, 0.027855765042609, -0.14252408454610171, -0.22456204871029503, 0.16089689643902721, -0.02425457223816131, -0.2951123664897979, -0.5660444381396371, -0.24874401259819506, -0.13715383945667575, -0.07799526501228872, -0.05894441263657921, 0.14761915031766173, -0.027272279462611022, -0.14221613986940598, -0.12847271749846612, -0.3029743011234611, 0.16327245590660713, -0.2741466477772256, -0.030374575070262227], [0.14656477565375314, -0.25946354654898535, 0.0051980289835248, 0.05382774555506772, -0.08519987978678571, -0.2618064573432499, -0.27825034675964844, -0.037636628112051936, -0.07931385969520811, 0.15663521734847266, 0.16933730110369177, 0.21242491171404043, -0.5815358971287319, -0.12046234728448953, 0.13287306645610922, -0.0471305950512656, -0.13135303282046504, 0.3694307376936754, -0.061556433264642454, 0.21871991853081954], [-0.3497171319208268, -0.3611067500985415, -0.6581870903072039, -0.0545245111379679, -0.136798662469904, -0.4373822659527789, 0.5212762390515856, 0.043151923911132026, 0.4851700181965205, 0.2658054325221342, -0.4971630091671772, -0.044073028771474634, -0.0787741183014129, 0.23863686181676022, 0.025665832893327408, 0.14592076561352962, 0.10136755796470741, -0.06696911656521834, 0.3204575679965849, -0.08882417479192835], [-0.18115021623816158, -0.047411443943971544, 0.6299577898811447, -0.08498748414734446, -0.6483028069735776, 0.848105691436631, -0.4451113798445391, -0.3657436756063139, 0.18018997206329596, 0.7039014137919043, -0.22841014553722933, 0.03498460654639601, 0.4138983849827228, -0.050942302293246304, 0.14545129605610393, 0.6654748766176148, -0.13621567048820535, 0.18969199010275808, 0.3650336090282601, 0.42715138739588526], [-0.1973742221671631, 0.7496761099249009, -0.3883731797811089, -0.16488591599283162, 0.24299660579881507, -0.1924871893414271, -0.16400845860744495, 0.11779666270142883, -0.7131179278661857, -0.37442471971467656, -0.18434280072464918, -0.09484880900784028, 0.3268958826744263, -0.3313207299764095, -0.33313691717566546, 0.24892056477402008, 0.13083772278850364, -0.5265764243409471, -0.05043266383297533, 0.24388439825517824], [0.4133853509973374, -0.023607537992544544, -0.12589281963717205, 0.14790748619122546, -0.18804168578779012, 0.597092098991754, 0.042699990826585876, -0.07986418996052513, -0.5509286338778671, -0.6633564692929722, -0.512989558169541, 0.39668713477864703, -0.03347246752146459, -0.1050978449652378, -0.1240984289618028, 0.04014569974654304, -0.03888860030883343, -0.04148236490004382, -0.3211702949724669, -0.5501178317170775], [-0.2100066242459712, 0.2862002031783144, -0.22215053324073933, 0.7524496059235936, -0.32074286893210685, 0.13657630419930525, -0.1470266450965082, 0.12300943629605526, 0.2760270765454686, 0.320816134995675, 0.05292517437267602, -0.30608376937701814, 0.19582573507323342, 0.3959013063336663, 0.06283895513268412, -0.6773447205587324, -0.2855848990937205, 1.1474140722183142, -0.130023050109089, 0.7684667020923276], [0.15508442757049024, 0.2653045298437483, -0.3962652191852573, -0.4720775897712414, -0.15632017801426878, 0.31246595289965984, -0.13205771348878018, -0.17990671597423324, 0.09288090772145224, -0.6889207782282196, -0.010364123283432232, -0.2204506919460581, -0.22086282627897405, -0.3685692149697464, 0.2372730232541978, 0.48489447441668243, 0.48258225624268586, -0.116843857235846, 0.32485292804779975, -0.6114147952997241]], "weights_H2toO": [[-1.3291961138841575, -0.526718636733335, 0.6185482854079037, -0.009107277231582576, 0.6592927741263633, 0.3278866228871843, 0.10955544498813291, -0.3439978400405988, 0.5164618628653594, 0.6036960075811363], [-0.5114705493418169, 0.8653905629634737, -0.5841381543755256, -0.06717331371421705, 0.12611142258900154, -0.9481568463428516, -0.14483244983731858, -0.017804213130155552, 0.3317029098515225, 0.19029849205906277]], "bias_TtoH1": [[0.5084621307747204, 0.08042783618198436, 0.2476451125159699, -0.3987120309543206, -0.3548081127463607, 0.37662556046350887, -0.008629769297521784, 0.568170017257856, 0.2701591574693851, 0.5749909471637673, -0.48275314638840744, -0.3607398233776435, -0.11067429853590371, 0.8907323722799508, -0.6284100528816826, -1.4140029977647746, -0.04348431591940265, 0.43690450339297426, 0.5035907537480733, 0.25589022264581257]], "bias_H1toH2": [[0.1303480618858133, 0.5992140990524717, -0.16579812154626042, -0.40056364530526634, 0.0388036435482782, -0.25780022294072824, 0.19995051468748296, -0.832735976784946, -0.5848405440413621, 0.11068221290275433]], "bias_H2toO": [[-0.6038461072184914, 0.9947802129199073]]}