{"weights_ItoH1": [[-0.30671479939150237, 0.3744640859772353, 0.32938527258101546, -0.22067588595332369, 0.12512843953605776, 0.5737138656657439, 0.2273638769304432, -0.017058390105470313, -0.031278467754658236, 0.01674496875370947, -0.021831075053559516, -0.2590175969381583, -0.26778501409851424, -0.12729385880603145, 0.39469905070504874, -0.2601918928549702, 0.010214586053973138, -0.25237030895142293, -0.6434093032908219, -0.2520963080909812, 0.2974814637232435, 0.013807972122524352, 0.09153314068024325, 0.10594953782915863, -0.03787804817890736, -0.2544969972924225, 0.017323071586593394, 0.07039257998917706, 0.10364336013342973, -0.11223894526687558], [-0.32626920414917526, -0.02113147099804348, 0.2524017158105553, -0.5962605722741005, 0.2629865570324694, -0.14671081554695256, -0.16557559103220357, -0.2701572306720448, 0.05586646218809062, 0.23121823645261702, -0.07210913202549608, 0.5053027775203814, -0.23554848057657474, -0.2248474559294559, -0.1403739571606907, 0.38414393360298277, -0.08123028112610624, 0.09016690156978342, 0.04191494550403183, 0.2096358839732983, -0.036032565436780274, -0.2386248974686718, -0.2146420107581342, -0.002434138136245746, 0.17335870236941978, -0.6770391961924829, -0.3816274683539529, 0.14187253365791674, 0.19656594459798632, 0.0743726080630768], [0.7081652338048385, -0.062470702141881565, 0.1488689045398649, -0.3319525691219257, 0.43216253062204224, 0.28696966618601943, 0.38443805965463984, -0.029790835734374008, 0.16484167023132912, -0.11001046204984269, -0.09853210141328018, -0.1127606726465893, 0.3437714001558629, 0.4098434925468974, 0.03698549776638418, 0.0961399768007182, -0.25547612865321984, 0.247346453969233, -0.05240782653837891, -0.08006297046758255, 0.18422843234911038, 0.3357154812640253, 0.4644768982318648, -0.09622374547965702, 0.052071184221793125, 0.06127536414251277, -0.38244934145681464, 0.8025389145812266, -0.0010062438060715786, 0.03802207647271108], [-0.26677903261599056, 0.3125444801410181, -0.4460261033369661, 0.06596735069906977, -0.1397545207083266, -0.35335737180128574, 0.31359447981376165, -0.02553270433428055, -0.006364236819495712, 0.022045583389472708, -0.44136410556945943, 0.34679339075668386, -0.09741655527884024, -0.27897341233878553, -0.5033515055743384, 0.3482138092048765, 0.04286805316014984, -0.10842131619454495, -0.27319153692342013, -0.47954128125931844, -0.16429187298642609, 0.2163775933840523, 0.2820020537639081, 0.23927509249024054, 0.12639179797829264, -0.25524613623276277, 0.016472535887287382, 0.250103258941041, -0.042545697527211, -0.5808706656889343], [0.4626065030197828, 0.10037141944187618, 0.3048779339073175, -0.19375537369992768, -0.09545355954286396, 0.1676672228019363, 0.2381012835658524, 0.3508634659403283, 0.5026028847955382, -0.09738110675383431, 0.393438160865802, -0.2371124640612945, -0.3883777309594681, -0.07064064030957828, -0.31966795740132714, -0.31981384906672683, -0.23395718197421025, 0.03098988258579487, 0.2196420275589801, -0.14293693804769056, -0.04155210729847955, 0.32996948341636484, 0.3068558434450666, -0.24748636338921345, -0.18527358386846476, 0.20831632095021593, 0.14364107421212108, -0.0649779670527687, 0.5064677490525842, 0.07697305814071823], [-0.03544722778943747, -0.2918837744007759, -0.21103868702760595, 0.028840949393311822, -0.7340965752653336, 0.14634741486633665, 0.011212770519954337, 0.439010603133846, -0.04743160692810612, 0.16917090151708253, -0.06008783374045125, 0.1103991821997664, -0.06920060429799862, -0.05156717307135636, 0.09675304163619607, -0.5532686688747415, 0.2447964938354738, -0.03831201079709726, -0.09523166611824836, -0.4456535963872135, -0.15229730802803038, -0.36279953081656924, 0.0442050093345094, 0.15405480033136765, -0.11451020713088494, -0.04823037183734199, -0.34171126962344095, 0.18975080888148124, 0.3557589805919227, 0.3508309562180994], [0.2041429374120523, 0.12768865036293012, -0.22126930648077273, 0.3372853491859015, -0.13440995467891773, -0.3276725526157993, -0.19846864005449333, 0.2650004877389164, -0.45645615673718765, -0.10440809529153249, -0.003659220699719456, -0.5580861850584536, -0.3024480678223771, 0.3054354093000629, -0.2064141232715652, -0.32276860553621994, -0.34647580820859636, 0.3252849343671122, 0.08095907726086506, 0.25187093132695276, -0.06605371868045096, 0.24572082320089167, -0.15130867578668097, 0.4084833559752014, 0.0323949134201802, 0.08954997453545661, 0.4853759167274322, 0.38196086997031686, 0.14897157380177495, -0.39384559259967844], [-0.4021663100513337, 0.2612193757146524, -0.22067203915329955, 0.13928464786170644, 0.11811203182592303, -0.1736441806687132, 0.16192866497290648, 0.1917671867220919, -0.28377815054981037, 0.043332090637956594, -0.4375293639670322, 0.24879441812102376, -0.11067190754685717, 0.15872341150864241, 0.12695501403050638, -0.09513120594190702, -0.45703500006273673, 0.3835738619998366, 0.07050889676502799, -0.15235770931696813, 0.3196086629907921, -0.07120742950001123, 0.43775456770268223, 0.1960813494332391, -0.3203599263843256, 0.071175418794723, 0.4243268513022204, 0.2139501961913021, 0.0018363319681159358, 0.38095560345775004], [0.0710987391175676, 0.12804513761326852, 0.2964662822649126, -0.40496381247169533, 0.2939781056669352, -0.10773180192253845, 0.154603994172855, -0.27629560260052916, 0.05783086481715628, -0.3070654047774957, -0.312662476855085, -0.42235893637939775, -0.5521980805550953, -0.4709485509127053, -0.11295379158483833, -0.05111687091891448, 0.1955299850300131, 0.03227382030501393, -0.31767901727221043, 0.3763541772446064, -0.3643037335108599, 0.4912899332839801, 0.04505397953627676, 0.007493168592574264, 0.6302182679999055, 0.1933448344635317, 0.20550490115097714, 0.2585573825759383, 0.21118025385229514, -0.02977441902973938], [-0.011371901057346631, 0.12121051711222317, -0.3151310482354872, 0.03380219899467388, 0.04844997996926342, 0.21674129728203814, 0.10420188610585168, 0.14798155799113244, 0.13863934584165855, 0.2984022271244025, 0.2071756347934179, 0.3456825034546835, 0.5102339451370735, -0.45310477259509413, 0.1228903735404397, 0.2665860671844523, -0.16471206451391207, -0.4512979085735508, -0.034462217856383905, -0.3066201790669694, 0.2638211845975213, 0.10327368969146371, -0.3654912971897382, 0.12492143626457536, 0.31278890549576227, 0.21139504662159395, 0.2792867075373249, 0.29548469977962116, -0.026594689982464895, -0.2848802977011992], [0.08540652444171558, 0.2539574912866307, 0.2188607176207074, 0.2307936316831526, -0.41743492577227764, 0.09709244494131232, -0.004661288102193464, 0.02925869760476227, 0.10971249141844341, -0.3296209347103121, 0.3711151910643283, -0.16038529737675694, 0.3523338672417219, -0.11733739068126207, 0.09768527375382835, -0.0022848784678398343, 0.2204245959250314, -0.08472507312002006, 0.1952134506450925, -0.06799698286274528, 0.3056739860900217, 0.3539395146097179, -0.1374200328037504, -0.2488999540666808, 0.1316437605715632, -0.1794787545119331, 0.2647432677382949, -0.44947234764261734, -0.2765629392438409, 0.2079462116384009], [-0.43446948528804213, -0.4000612992442565, 0.20624589036953545, 0.5085326111817771, 0.0017095795347275649, -0.28344496682148523, -0.1950461392004271, -0.25119509188171335, -0.23048504498155636, -0.13171942882247198, -0.45974584928357093, 0.05790669108624679, -0.4243280757102175, 0.27970024360989043, -0.0807341483910691, -0.3279808749490015, 0.11943520582216967, -0.17611200102052343, 0.5199863789887182, 0.2900312101919256, -0.3207719752691576, 0.17701483856526182, 0.1874941377236342, 0.302167432939021, 0.11505063317061409, -0.4754733446377239, -0.028589238302416074, -0.06269002316386857, -0.34033307481028063, 0.008413121964460146], [-0.32147552682059194, 0.4122851235862986, 0.5516118123116092, 0.12925146425062703, 0.2524872928819031, -0.20228003570960318, 0.041962973020278405, -0.03117470480278016, -0.5350145186426384, -0.08439625253414747, -0.021293084053010773, 0.040683553653170265, -0.17703681374052496, 0.47981982925688255, -0.16409068762029938, -0.2425105777171217, 0.0771974913139993, 0.018946880153008216, 0.021714325218208878, 0.12752573633088535, 0.6127262031489139, -0.036624414690893295, 0.049566981034883516, 0.7872179602787225, 0.4321403656570415, -0.48557592965526164, 0.7397512908977947, -0.14972907940057742, 0.13447650551583493, 0.4110011615226205], [0.3089464791724004, 0.2019735072208724, 0.21513649320923972, -0.46582177247534656, 0.07554114081476167, 0.03912928398797489, 0.06693275780907312, 0.36982359670193876, 0.20011314717238393, -0.13924942718667446, 0.3219736955346761, 0.06687057571197304, 0.11518712313193462, 0.11392178286056362, -0.2436903334718189, -0.04262772955240458, 0.326072911118969, 0.04542709687859307, 0.3321068028171697, 0.39620284091064667, 0.01712781529584811, -0.09531424296491796, 0.37836877584052836, -0.17109031935387115, -0.16647853393950696, -0.36398410009660204, -0.0735271295342389, 0.04501999930556749, 0.1217444715297742, -0.022964231478519635], [-0.12923034339663533, -0.8681708062062884, 0.32067484445878797, -0.23381061181116092, -0.5447666204285142, -0.5110637924692474, -0.3451910481845994, 0.2566704409460401, -0.07072868969295817, -0.2082926165518037, -0.10493777160380365, 0.005343312207202254, -0.31962189188211204, -0.07325780430891352, -0.07896031992771221, 0.10584136309374773, -0.03845490915056496, -0.30440420202420243, 0.2114328021752047, -0.5405878901870466, -0.056804177097871424, -0.2225993161512369, 0.2325791778094394, -0.3423323834664964, 0.3527306763750366, -0.21852289429150246, -0.2241701289683623, 0.004544045701353534, -0.006683560597624833, -0.37800785249070823], [-0.16744061558479456, -0.21253251463610418, 0.21441415802148303, 0.12572779375756457, -0.15477294214610743, -0.08391174057792866, 0.11636226641141602, -0.590696347603456, 0.06336976083184226, 0.20837273529087275, -0.15284190575650375, 0.07389347161782066, -0.1496527576636339, -0.3391519873873555, 0.0180183736191714, 0.1112303424465702, -0.05770814195739059, 0.3826606523484074, 0.045343120311672806, 0.010952202044956503, -0.11329702901294603, -0.21012008919543673, -0.6385289045293991, -0.3583278230063785, 0.06157568406989634, 0.1283203154959264, 0.38820580165632257, -0.8612478217916691, 0.0924340280572187, 0.16642062001269925], [-0.11249622789902676, 0.5100640245850533, -0.18881718659555258, 0.19627283476636095, 0.22148336412687225, -0.1567024082699071, 0.11177062121764997, -0.2849365015978405, 0.20118970586120394, -0.17405792115400737, 0.29648925052376945, 0.29042441528754664, -0.13772793089925836, 0.06305997529745852, -0.015379543832881813, 0.18841156783484636, -0.31781625093961235, 0.18015928312185917, -0.3247961859803446, -0.40130692438929333, -0.272449703499587, 0.20815497060928262, -0.05949364443260522, 0.2787435609512713, 0.33799586242197754, -0.2174240566804601, 0.4090873658707158, 0.02716247679969086, 0.1971533319729182, -0.17607783885592015], [0.35478294044421055, -0.009970741488769986, -0.0628029136191321, 0.00709701944149064, 0.17069077305531258, -0.02462566412033394, 0.0003386885888709269, -0.38809227823287595, -0.23197251004635017, 0.268319584431626, 0.25824233903593535, -0.06184357106503877, -0.03670381646823019, 0.04322775837632146, -0.09462529587782609, -0.0809475609559345, 0.04228719821862539, 0.056063519953246536, 0.5520589271499476, 0.22111050329289608, 0.2089491297024443, -0.34131197380766004, -0.00015293212132076874, -0.279211528189713, 0.06740744114900128, -0.07821801080452209, 0.12003740302703055, -0.20699739790817, 0.287553818610836, 0.08668903079658323], [-0.01636295400530114, 0.20122200479067867, 0.07299840045680918, 0.1985379438301371, -0.2344141399345881, 0.26371093276088986, -0.2382593306891454, -0.38097949635867945, -0.047481262966350087, 0.3033757151050957, -0.6412709152792586, -0.22867504753510545, 0.31793917660225113, -0.15649080812339358, -0.23511440654274335, 0.1881425413986674, -0.18139511017479573, -0.041017426564447075, 0.15934268978492414, -0.30669393163542225, -0.10655109420697673, -0.17240572041766314, -0.6103277336029649, 0.13783868782489064, 0.5442322406225982, 0.2901978316122049, 0.02288981466498454, -0.8662570071093983, 0.060850533822661985, -0.0895112698235843], [0.13088156263687473, 0.10937194765882925, 0.2933987646939031, -0.1463116168570345, -0.1543831068029249, -0.04455066084715961, -0.09934713596297685, 0.36753598788467706, -0.031110462184696826, 0.13133757596478057, 0.27893361056990035, 0.08188952436308376, 0.460014949262881, 0.08957294822001612, 0.31833007989646867, -0.058550959378225007, -0.03222622300192233, 0.18473557581933545, -0.5097657533794167, -0.0569626485360693, 0.310473639068124, 0.1323433357358423, -0.08477863698233391, -0.0885582308118406, -0.2107744451084172, 0.28748700924696047, -0.2702886585743822, -0.36605737226223645, 0.29024577766395204, -0.03212732580930891]], "weights_H1toH2": [[-0.21898473479979755, 0.4293843270262478, 0.3053834314105138, 0.022276232852054947, -0.3052793250347332, -0.37425092750537087, -0.2028301649017702, -0.18175096660138912, -0.49067464121781207, -0.24303922880256637, -0.10132243584675231, -0.015142862308925444, -0.5054259575203789, -0.41264623088607977, 0.7488955749106122, 0.47566376721331355, -0.3061192698728166, -0.0671372335993459, 0.2866230973208282, 0.393613378155891], [-0.5647303126172455, 0.054240446297732586, 0.3046177704374331, 0.0039037415132320958, -0.29479478739120407, 0.2679236105770315, 0.15139461775562674, 0.0709463692970022, 0.41103246092655044, -0.04940705844000773, -0.29008552285244116, -0.15328977133282312, -0.10054752028546995, -0.11313809605034567, -0.08135841453956881, 0.25686476249439677, -0.08967147014059537, 0.31990299859015486, -0.2709295256238913, -0.22078823812918766], [-0.3304417265782256, 0.37246726346728276, 0.22176200490540313, -0.11073001813409829, 0.03900054351165834, 0.05421832126337477, -0.0020036475046062248, 0.2776902815717599, -0.20146873102295998, 0.25086035798505657, -0.5225307744815996, -0.21828890924770084, 0.35605112755063667, -0.07241640853247737, -0.16834684408231895, -0.18685412570121798, -0.11252012639840779, 0.24102192600747668, 0.09003099771636514, 0.7019014804861698], [-0.04886333571824868, 0.3442865290078583, -0.4838256714747247, -0.35273366682137086, -0.4157673723613294, -0.26303993451726304, -0.03593653637947383, -0.01474388778760133, 0.46608763602051984, -0.06456456331309832, 0.27425537454733456, 0.41777966567386826, -0.21315300664460818, -0.40963090857493795, -0.366262195127168, 0.21992370230665534, -0.026592166325491662, 0.03905261385224533, -0.25414354917270765, -0.05147973200294693], [-0.2671527356080522, -0.022676424576532964, -0.15404460578888152, 0.5276991009553376, 0.3255857852884776, -0.33372008597777963, 0.3713070008225197, 0.14133324559813537, -0.5867750345987769, -0.34625523606338166, -0.07407859893302175, 0.2770897114542802, -0.21815805130588692, -0.2127117640685618, -0.4138146919545812, 0.017960337434504602, -0.07695386536922018, 0.3173440771713905, -0.12936777439481228, 0.1906587796506862], [0.18094696984423458, -0.06533092416904177, 0.08390605373004069, 0.277283926865183, -0.27005636984424586, 0.24141531877853203, -0.4755830231067964, -0.027079607594316827, -0.10427284883597038, 0.01435498105899529, -0.07503591085196994, -0.007618084071960625, 0.31836751828164794, -0.5310428307861335, 0.5179086095061202, -0.7368547860442495, -0.027707979594139513, -0.22387766037966556, 0.20839179495159563, 0.1322510043856521], [-0.4714810647481516, 0.34899609917156993, -0.05893833847134563, 0.5443461062822507, -0.25419479391094535, -0.8796208155971637, -0.1041561926341937, -0.3216805433305876, -0.46248044697904034, -0.6406432410527508, 0.12309832496255545, -0.29074174930510294, -0.23805119765369678, -0.20598855954612233, -0.7387457551764979, 0.7362746138855133, -0.19410533306592326, 0.18534139631518326, 0.13902114008434135, -0.16133909254499182], [0.08311420570628, -0.46524422725071546, 0.8049909370692068, 0.2128261240955318, 0.4690318253257172, 0.38921726228967496, 0.30319179323516304, -0.1852187831560823, 0.08511048243176153, 0.1891760918609288, 0.49560672109329584, 0.07139228349875484, 0.6458738025134446, 0.0831852079060829, -0.12044219206619086, -0.32626976134690083, 0.21471736100024566, -0.47084071689143925, -0.13744722612012122, 0.01455797109571902], [0.42048792808295693, 0.188730258031245, -0.48863906666640283, 0.17593751000760938, -0.7969568012970253, 0.2810685115768328, -0.02949182364166018, 0.28774492137070945, -0.14663722097547127, 0.1774561644136146, 0.013711386681862137, -0.3012680067296747, -0.05611376788596336, -0.014848335057349544, 0.3498441482933615, 0.2708992988979676, 0.005385738703685084, -0.16492861077649848, 0.6507381041594641, -0.7657286996622975], [0.007445943812258577, 0.42272947752444523, 0.5952684368174531, 0.171239815715345, -0.5314009869422207, 0.13509287241817614, 0.18879856868271375, -0.2560585418665203, 0.49241650635724826, 0.07166375164852386, 0.2843417022566985, -0.037760369416425896, 0.2079449644780898, -0.2825619204197335, -0.00946089398969911, 0.07346941294381934, 0.306321672307516, 0.013327841354283766, -0.5519123223680844, -0.056521257380749944]], "weights_H2toO": [[-0.6665489380770169, -0.19511763219221112, -0.22677085110353806, -0.5606273774216703, -0.5929998244127602, 0.1357597459697353, -0.657847116394576, 1.3850155506879187, -0.6875720054804109, -0.007251236406196304], [0.47918186556689646, -0.22868569827081592, -0.6103719894510303, 0.6793295185528396, 0.442619509211224, 0.14835753309122102, 0.8609760107666771, -0.11993892242842456, 0.022393879017939322, -0.32013760481297243]], "bias_TtoH1": [[-0.018098515265441876, 0.39490894938172966, -0.1733403564057728, 0.5115849313886034, 0.2613616985570557, -0.29152129972458884, -0.4738965877258903, -0.5298728099208486, -0.007354991529941599, -0.07207691080178587, 0.3551627132824189, -0.19358562422493947, 0.3050938748600117, -0.09541886870755904, -0.3110494917950889, -0.40661393444865074, -0.33334145928571246, -0.2411924341318414, 0.4943194865608258, -0.12703107461915336]], "bias_H1toH2": [[0.4441187597659517, 0.06298230754526699, -0.49513276451347704, -0.27821807245894503, -0.6855830773043132, 0.42116110881613056, 0.5516295248855596, -0.0304561834267552, -0.17772454297912685, -0.33644006453288156]], "bias_H2toO": [[0.2532164591305028, 1.676112365656088]]}